digraph Tree {
node [shape=box] ;
0 [label="age <= 0.0736\ngini = 0.1149\nsamples = 189729\nvalue = [178122, 11607]"] ;
1 [label="detailed industry recode <= 0.0\ngini = 0.0989\nsamples = 187188\nvalue = [177421, 9767]"] ;
0 -> 1 [labeldistance=2.5, labelangle=45, headlabel="True"] ;
3 [label="education <= 0.875\ngini = 0.0653\nsamples = 168531\nvalue = [162834, 5697]"] ;
1 -> 3 ;
7 [label="class of worker <= 0.4083\ngini = 0.0103\nsamples = 108541\nvalue = [107979, 562]"] ;
3 -> 7 ;
115 [label="age <= 0.0472\ngini = 0.0095\nsamples = 108214\nvalue = [107699, 515]"] ;
7 -> 115 ;
163 [label="education <= 0.4519\ngini = 0.009\nsamples = 108055\nvalue = [107567, 488]"] ;
115 -> 163 ;
235 [label="gini = 0.0049\nsamples = 95430\nvalue = [95197, 233]"] ;
163 -> 235 ;
236 [label="marital stat <= 15.5\ngini = 0.0396\nsamples = 12625\nvalue = [12370, 255]"] ;
163 -> 236 ;
333 [label="Label <= 0.4278\ngini = 0.08\nsamples = 3618\nvalue = [3467, 151]"] ;
236 -> 333 ;
335 [label="gini = 0.0386\nsamples = 2085\nvalue = [2044, 41]"] ;
333 -> 335 ;
336 [label="gini = 0.1332\nsamples = 1533\nvalue = [1423, 110]"] ;
333 -> 336 ;
334 [label="gini = 0.0228\nsamples = 9007\nvalue = [8903, 104]"] ;
236 -> 334 ;
164 [label="age <= 0.0483\ngini = 0.282\nsamples = 159\nvalue = [132, 27]"] ;
115 -> 164 ;
285 [label="gini = 0.0\nsamples = 4\nvalue = [0, 4]"] ;
164 -> 285 ;
286 [label="tax filer stat <= 0.5\ngini = 0.2527\nsamples = 155\nvalue = [132, 23]"] ;
164 -> 286 ;
337 [label="gini = 0.4082\nsamples = 7\nvalue = [2, 5]"] ;
286 -> 337 ;
338 [label="gini = 0.2137\nsamples = 148\nvalue = [130, 18]"] ;
286 -> 338 ;
116 [label="education <= 0.4423\ngini = 0.2461\nsamples = 327\nvalue = [280, 47]"] ;
7 -> 116 ;
169 [label="gini = 0.1151\nsamples = 212\nvalue = [199, 13]"] ;
116 -> 169 ;
170 [label="gini = 0.4165\nsamples = 115\nvalue = [81, 34]"] ;
116 -> 170 ;
8 [label="marital stat <= 18.5\ngini = 0.1565\nsamples = 59990\nvalue = [54855, 5135]"] ;
3 -> 8 ;
9 [label="full or part time employment stat <= 0.5\ngini = 0.2802\nsamples = 21826\nvalue = [18149, 3677]"] ;
8 -> 9 ;
13 [label="class of worker <= 0.4887\ngini = 0.1542\nsamples = 10654\nvalue = [9757, 897]"] ;
9 -> 13 ;
59 [label="Label <= 0.3389\ngini = 0.1505\nsamples = 10610\nvalue = [9740, 870]"] ;
13 -> 59 ;
85 [label="gini = 0.0585\nsamples = 2687\nvalue = [2606, 81]"] ;
59 -> 85 ;
86 [label="detailed occupation recode <= 0.9167\ngini = 0.1793\nsamples = 7923\nvalue = [7134, 789]"] ;
59 -> 86 ;
93 [label="gini = 0.1382\nsamples = 4873\nvalue = [4509, 364]"] ;
86 -> 93 ;
94 [label="instance weight <= 0.2325\ngini = 0.2399\nsamples = 3050\nvalue = [2625, 425]"] ;
86 -> 94 ;
193 [label="hispanic origin <= 18.5\ngini = 0.2361\nsamples = 3034\nvalue = [2619, 415]"] ;
94 -> 193 ;
195 [label="major industry code <= 15.5\ngini = 0.258\nsamples = 2563\nvalue = [2173, 390]"] ;
193 -> 195 ;
221 [label="major industry code <= 13.5\ngini = 0.2801\nsamples = 2149\nvalue = [1787, 362]"] ;
195 -> 221 ;
223 [label="major industry code <= 11.5\ngini = 0.2328\nsamples = 1703\nvalue = [1474, 229]"] ;
221 -> 223 ;
227 [label="major industry code <= 10.0\ngini = 0.2728\nsamples = 1252\nvalue = [1048, 204]"] ;
223 -> 227 ;
229 [label="enroll in edu inst last wk <= 41.5\ngini = 0.2518\nsamples = 1198\nvalue = [1021, 177]"] ;
227 -> 229 ;
231 [label="major industry code <= 8.5\ngini = 0.3257\nsamples = 669\nvalue = [532, 137]"] ;
229 -> 231 ;
233 [label="gini = 0.1957\nsamples = 282\nvalue = [251, 31]"] ;
231 -> 233 ;
234 [label="marital stat <= 2.5\ngini = 0.3978\nsamples = 387\nvalue = [281, 106]"] ;
231 -> 234 ;
245 [label="gini = 0.4961\nsamples = 79\nvalue = [43, 36]"] ;
234 -> 245 ;
246 [label="family members under 18 <= 3.5\ngini = 0.3512\nsamples = 308\nvalue = [238, 70]"] ;
234 -> 246 ;
353 [label="gini = 0.4856\nsamples = 53\nvalue = [31, 22]"] ;
246 -> 353 ;
354 [label="gini = 0.3056\nsamples = 255\nvalue = [207, 48]"] ;
246 -> 354 ;
232 [label="gini = 0.1398\nsamples = 529\nvalue = [489, 40]"] ;
229 -> 232 ;
230 [label="gini = 0.5\nsamples = 54\nvalue = [27, 27]"] ;
227 -> 230 ;
228 [label="wage per hour <= 0.5\ngini = 0.1047\nsamples = 451\nvalue = [426, 25]"] ;
223 -> 228 ;
349 [label="gini = 0.4114\nsamples = 38\nvalue = [27, 11]"] ;
228 -> 349 ;
350 [label="gini = 0.0655\nsamples = 413\nvalue = [399, 14]"] ;
228 -> 350 ;
224 [label="marital stat <= 7.5\ngini = 0.4186\nsamples = 446\nvalue = [313, 133]"] ;
221 -> 224 ;
225 [label="tax filer stat <= 4.0\ngini = 0.4999\nsamples = 118\nvalue = [60, 58]"] ;
224 -> 225 ;
311 [label="gini = 0.482\nsamples = 79\nvalue = [32, 47]"] ;
225 -> 311 ;
312 [label="gini = 0.405\nsamples = 39\nvalue = [28, 11]"] ;
225 -> 312 ;
226 [label="major industry code <= 14.5\ngini = 0.3527\nsamples = 328\nvalue = [253, 75]"] ;
224 -> 226 ;
237 [label="Label <= 0.5056\ngini = 0.3126\nsamples = 294\nvalue = [237, 57]"] ;
226 -> 237 ;
239 [label="gini = 0.1809\nsamples = 169\nvalue = [152, 17]"] ;
237 -> 239 ;
240 [label="gini = 0.4352\nsamples = 125\nvalue = [85, 40]"] ;
237 -> 240 ;
238 [label="gini = 0.4983\nsamples = 34\nvalue = [16, 18]"] ;
226 -> 238 ;
222 [label="gini = 0.1261\nsamples = 414\nvalue = [386, 28]"] ;
195 -> 222 ;
196 [label="gini = 0.1005\nsamples = 471\nvalue = [446, 25]"] ;
193 -> 196 ;
194 [label="gini = 0.4688\nsamples = 16\nvalue = [6, 10]"] ;
94 -> 194 ;
60 [label="gini = 0.4742\nsamples = 44\nvalue = [17, 27]"] ;
13 -> 60 ;
14 [label="Label <= 0.35\ngini = 0.3738\nsamples = 11172\nvalue = [8392, 2780]"] ;
9 -> 14 ;
17 [label="Label <= 0.3056\ngini = 0.1486\nsamples = 2882\nvalue = [2649, 233]"] ;
14 -> 17 ;
109 [label="gini = 0.0684\nsamples = 1550\nvalue = [1495, 55]"] ;
17 -> 109 ;
110 [label="dividends from stocks <= 0.5\ngini = 0.2316\nsamples = 1332\nvalue = [1154, 178]"] ;
17 -> 110 ;
289 [label="gini = 0.1633\nsamples = 691\nvalue = [629, 62]"] ;
110 -> 289 ;
290 [label="gini = 0.2964\nsamples = 641\nvalue = [525, 116]"] ;
110 -> 290 ;
18 [label="class of worker <= 0.4083\ngini = 0.4257\nsamples = 8290\nvalue = [5743, 2547]"] ;
14 -> 18 ;
21 [label="marital stat <= 11.5\ngini = 0.4092\nsamples = 7866\nvalue = [5609, 2257]"] ;
18 -> 21 ;
29 [label="enroll in edu inst last wk <= 2.5\ngini = 0.4448\nsamples = 5013\nvalue = [3339, 1674]"] ;
21 -> 29 ;
35 [label="gini = 0.2028\nsamples = 489\nvalue = [433, 56]"] ;
29 -> 35 ;
36 [label="tax filer stat <= 3.5\ngini = 0.4595\nsamples = 4524\nvalue = [2906, 1618]"] ;
29 -> 36 ;
45 [label="major industry code <= 15.5\ngini = 0.4747\nsamples = 3734\nvalue = [2287, 1447]"] ;
36 -> 45 ;
63 [label="major industry code <= 13.0\ngini = 0.4847\nsamples = 3119\nvalue = [1832, 1287]"] ;
45 -> 63 ;
65 [label="major industry code <= 11.5\ngini = 0.4622\nsamples = 2358\nvalue = [1503, 855]"] ;
63 -> 65 ;
67 [label="major industry code <= 8.5\ngini = 0.4854\nsamples = 1742\nvalue = [1020, 722]"] ;
65 -> 67 ;
71 [label="major industry code <= 6.5\ngini = 0.3938\nsamples = 397\nvalue = [290, 107]"] ;
67 -> 71 ;
241 [label="gini = 0.2171\nsamples = 113\nvalue = [99, 14]"] ;
71 -> 241 ;
242 [label="major industry code <= 7.5\ngini = 0.4405\nsamples = 284\nvalue = [191, 93]"] ;
71 -> 242 ;
315 [label="gini = 0.4854\nsamples = 152\nvalue = [89, 63]"] ;
242 -> 315 ;
316 [label="gini = 0.3512\nsamples = 132\nvalue = [102, 30]"] ;
242 -> 316 ;
72 [label="marital stat <= 9.5\ngini = 0.4963\nsamples = 1345\nvalue = [730, 615]"] ;
67 -> 72 ;
75 [label="detailed occupation recode <= 0.5833\ngini = 0.4997\nsamples = 1196\nvalue = [612, 584]"] ;
72 -> 75 ;
111 [label="detailed household summary in household <= 5.0\ngini = 0.4783\nsamples = 475\nvalue = [287, 188]"] ;
75 -> 111 ;
177 [label="hispanic origin <= 18.5\ngini = 0.4585\nsamples = 399\nvalue = [257, 142]"] ;
111 -> 177 ;
295 [label="gini = 0.477\nsamples = 331\nvalue = [201, 130]"] ;
177 -> 295 ;
296 [label="gini = 0.2907\nsamples = 68\nvalue = [56, 12]"] ;
177 -> 296 ;
178 [label="gini = 0.4778\nsamples = 76\nvalue = [30, 46]"] ;
111 -> 178 ;
112 [label="enroll in edu inst last wk <= 38.5\ngini = 0.4952\nsamples = 721\nvalue = [325, 396]"] ;
75 -> 112 ;
131 [label="Label <= 0.3833\ngini = 0.4683\nsamples = 409\nvalue = [153, 256]"] ;
112 -> 131 ;
259 [label="hispanic origin <= 3.5\ngini = 0.492\nsamples = 71\nvalue = [40, 31]"] ;
131 -> 259 ;
385 [label="gini = 0.0\nsamples = 6\nvalue = [0, 6]"] ;
259 -> 385 ;
386 [label="gini = 0.4734\nsamples = 65\nvalue = [40, 25]"] ;
259 -> 386 ;
260 [label="gini = 0.4451\nsamples = 338\nvalue = [113, 225]"] ;
131 -> 260 ;
132 [label="Label <= 0.5167\ngini = 0.4947\nsamples = 312\nvalue = [172, 140]"] ;
112 -> 132 ;
143 [label="gini = 0.4513\nsamples = 189\nvalue = [124, 65]"] ;
132 -> 143 ;
144 [label="gini = 0.4759\nsamples = 123\nvalue = [48, 75]"] ;
132 -> 144 ;
76 [label="marital stat <= 10.5\ngini = 0.3295\nsamples = 149\nvalue = [118, 31]"] ;
72 -> 76 ;
145 [label="gini = 0.2303\nsamples = 128\nvalue = [111, 17]"] ;
76 -> 145 ;
146 [label="gini = 0.4444\nsamples = 21\nvalue = [7, 14]"] ;
76 -> 146 ;
68 [label="state of previous residence <= 31.5\ngini = 0.3386\nsamples = 616\nvalue = [483, 133]"] ;
65 -> 68 ;
327 [label="gini = 0.4826\nsamples = 59\nvalue = [35, 24]"] ;
68 -> 327 ;
328 [label="gini = 0.3148\nsamples = 557\nvalue = [448, 109]"] ;
68 -> 328 ;
66 [label="marital stat <= 7.5\ngini = 0.4908\nsamples = 761\nvalue = [329, 432]"] ;
63 -> 66 ;
79 [label="detailed occupation recode <= 0.25\ngini = 0.4542\nsamples = 499\nvalue = [174, 325]"] ;
66 -> 79 ;
171 [label="major industry code <= 14.5\ngini = 0.4989\nsamples = 105\nvalue = [55, 50]"] ;
79 -> 171 ;
181 [label="gini = 0.4126\nsamples = 55\nvalue = [39, 16]"] ;
171 -> 181 ;
182 [label="gini = 0.4352\nsamples = 50\nvalue = [16, 34]"] ;
171 -> 182 ;
172 [label="enroll in edu inst last wk <= 49.5\ngini = 0.4216\nsamples = 394\nvalue = [119, 275]"] ;
79 -> 172 ;
383 [label="gini = 0.4055\nsamples = 368\nvalue = [104, 264]"] ;
172 -> 383 ;
384 [label="gini = 0.4882\nsamples = 26\nvalue = [15, 11]"] ;
172 -> 384 ;
80 [label="major industry code <= 14.5\ngini = 0.4832\nsamples = 262\nvalue = [155, 107]"] ;
66 -> 80 ;
89 [label="Label <= 0.5167\ngini = 0.4032\nsamples = 175\nvalue = [126, 49]"] ;
80 -> 89 ;
265 [label="gini = 0.2732\nsamples = 98\nvalue = [82, 16]"] ;
89 -> 265 ;
266 [label="gini = 0.4898\nsamples = 77\nvalue = [44, 33]"] ;
89 -> 266 ;
90 [label="gini = 0.4444\nsamples = 87\nvalue = [29, 58]"] ;
80 -> 90 ;
64 [label="instance weight <= 0.2228\ngini = 0.385\nsamples = 615\nvalue = [455, 160]"] ;
45 -> 64 ;
361 [label="gini = 0.3803\nsamples = 611\nvalue = [455, 156]"] ;
64 -> 361 ;
362 [label="gini = 0.0\nsamples = 4\nvalue = [0, 4]"] ;
64 -> 362 ;
46 [label="Label <= 0.5167\ngini = 0.3392\nsamples = 790\nvalue = [619, 171]"] ;
36 -> 46 ;
375 [label="gini = 0.2958\nsamples = 532\nvalue = [436, 96]"] ;
46 -> 375 ;
376 [label="gini = 0.4124\nsamples = 258\nvalue = [183, 75]"] ;
46 -> 376 ;
30 [label="tax filer stat <= 2.5\ngini = 0.3252\nsamples = 2853\nvalue = [2270, 583]"] ;
21 -> 30 ;
103 [label="hispanic origin <= 8.5\ngini = 0.3553\nsamples = 2225\nvalue = [1711, 514]"] ;
30 -> 103 ;
123 [label="hispanic origin <= 6.5\ngini = 0.4356\nsamples = 546\nvalue = [371, 175]"] ;
103 -> 123 ;
125 [label="hispanic origin <= 3.5\ngini = 0.3265\nsamples = 258\nvalue = [205, 53]"] ;
123 -> 125 ;
371 [label="gini = 0.409\nsamples = 143\nvalue = [102, 41]"] ;
125 -> 371 ;
372 [label="gini = 0.1869\nsamples = 115\nvalue = [103, 12]"] ;
125 -> 372 ;
126 [label="gini = 0.4883\nsamples = 288\nvalue = [166, 122]"] ;
123 -> 126 ;
124 [label="age <= 0.0585\ngini = 0.3223\nsamples = 1679\nvalue = [1340, 339]"] ;
103 -> 124 ;
157 [label="detailed occupation recode <= 0.4167\ngini = 0.3122\nsamples = 1638\nvalue = [1321, 317]"] ;
124 -> 157 ;
183 [label="gini = 0.2321\nsamples = 664\nvalue = [575, 89]"] ;
157 -> 183 ;
184 [label="gini = 0.3586\nsamples = 974\nvalue = [746, 228]"] ;
157 -> 184 ;
158 [label="gini = 0.4973\nsamples = 41\nvalue = [19, 22]"] ;
124 -> 158 ;
104 [label="gini = 0.1956\nsamples = 628\nvalue = [559, 69]"] ;
30 -> 104 ;
22 [label="class of worker <= 0.4111\ngini = 0.4323\nsamples = 424\nvalue = [134, 290]"] ;
18 -> 22 ;
159 [label="gini = 0.5\nsamples = 107\nvalue = [53, 54]"] ;
22 -> 159 ;
160 [label="class of worker <= 0.4294\ngini = 0.3805\nsamples = 317\nvalue = [81, 236]"] ;
22 -> 160 ;
215 [label="class of worker <= 0.4287\ngini = 0.3047\nsamples = 224\nvalue = [42, 182]"] ;
160 -> 215 ;
219 [label="gini = 0.4364\nsamples = 115\nvalue = [37, 78]"] ;
215 -> 219 ;
220 [label="gini = 0.0875\nsamples = 109\nvalue = [5, 104]"] ;
215 -> 220 ;
216 [label="class of worker <= 0.4814\ngini = 0.487\nsamples = 93\nvalue = [39, 54]"] ;
160 -> 216 ;
217 [label="gini = 0.1609\nsamples = 34\nvalue = [31, 3]"] ;
216 -> 217 ;
218 [label="gini = 0.2344\nsamples = 59\nvalue = [8, 51]"] ;
216 -> 218 ;
10 [label="full or part time employment stat <= 0.5\ngini = 0.0735\nsamples = 38164\nvalue = [36706, 1458]"] ;
8 -> 10 ;
39 [label="class of worker <= 0.5175\ngini = 0.0205\nsamples = 17186\nvalue = [17008, 178]"] ;
10 -> 39 ;
319 [label="gini = 0.0198\nsamples = 17172\nvalue = [17000, 172]"] ;
39 -> 319 ;
320 [label="gini = 0.4898\nsamples = 14\nvalue = [8, 6]"] ;
39 -> 320 ;
40 [label="Label <= 0.3944\ngini = 0.1146\nsamples = 20978\nvalue = [19698, 1280]"] ;
10 -> 40 ;
43 [label="class of worker <= 0.4813\ngini = 0.0569\nsamples = 10001\nvalue = [9708, 293]"] ;
40 -> 43 ;
167 [label="race <= 2.5\ngini = 0.0546\nsamples = 9967\nvalue = [9687, 280]"] ;
43 -> 167 ;
269 [label="enroll in edu inst last wk <= 49.5\ngini = 0.0855\nsamples = 5187\nvalue = [4955, 232]"] ;
167 -> 269 ;
275 [label="gini = 0.0818\nsamples = 5150\nvalue = [4930, 220]"] ;
269 -> 275 ;
276 [label="gini = 0.4383\nsamples = 37\nvalue = [25, 12]"] ;
269 -> 276 ;
270 [label="age <= 0.0472\ngini = 0.0199\nsamples = 4780\nvalue = [4732, 48]"] ;
167 -> 270 ;
367 [label="gini = 0.0175\nsamples = 4764\nvalue = [4722, 42]"] ;
270 -> 367 ;
368 [label="age <= 0.0483\ngini = 0.4688\nsamples = 16\nvalue = [10, 6]"] ;
270 -> 368 ;
369 [label="gini = 0.0\nsamples = 6\nvalue = [0, 6]"] ;
368 -> 369 ;
370 [label="gini = 0.0\nsamples = 10\nvalue = [10, 0]"] ;
368 -> 370 ;
168 [label="class of worker <= 0.4988\ngini = 0.4723\nsamples = 34\nvalue = [21, 13]"] ;
43 -> 168 ;
359 [label="gini = 0.0\nsamples = 5\nvalue = [0, 5]"] ;
168 -> 359 ;
360 [label="gini = 0.3995\nsamples = 29\nvalue = [21, 8]"] ;
168 -> 360 ;
44 [label="detailed occupation recode <= 0.9167\ngini = 0.1637\nsamples = 10977\nvalue = [9990, 987]"] ;
40 -> 44 ;
61 [label="class of worker <= 0.4083\ngini = 0.1232\nsamples = 7218\nvalue = [6742, 476]"] ;
44 -> 61 ;
155 [label="instance weight <= 0.2055\ngini = 0.1166\nsamples = 7063\nvalue = [6624, 439]"] ;
61 -> 155 ;
209 [label="major industry code <= 6.5\ngini = 0.1139\nsamples = 7030\nvalue = [6604, 426]"] ;
155 -> 209 ;
247 [label="gini = 0.0455\nsamples = 1762\nvalue = [1721, 41]"] ;
209 -> 247 ;
248 [label="age <= 0.0707\ngini = 0.1355\nsamples = 5268\nvalue = [4883, 385]"] ;
209 -> 248 ;
249 [label="gini = 0.1316\nsamples = 5227\nvalue = [4857, 370]"] ;
248 -> 249 ;
250 [label="gini = 0.464\nsamples = 41\nvalue = [26, 15]"] ;
248 -> 250 ;
210 [label="gini = 0.4775\nsamples = 33\nvalue = [20, 13]"] ;
155 -> 210 ;
156 [label="gini = 0.3635\nsamples = 155\nvalue = [118, 37]"] ;
61 -> 156 ;
62 [label="sex <= 7.5\ngini = 0.2349\nsamples = 3759\nvalue = [3248, 511]"] ;
44 -> 62 ;
107 [label="marital stat <= 22.5\ngini = 0.1638\nsamples = 1755\nvalue = [1597, 158]"] ;
62 -> 107 ;
133 [label="gini = 0.4395\nsamples = 92\nvalue = [62, 30]"] ;
107 -> 133 ;
134 [label="gini = 0.1421\nsamples = 1663\nvalue = [1535, 128]"] ;
107 -> 134 ;
108 [label="major industry code <= 6.5\ngini = 0.2902\nsamples = 2004\nvalue = [1651, 353]"] ;
62 -> 108 ;
199 [label="gini = 0.118\nsamples = 254\nvalue = [238, 16]"] ;
108 -> 199 ;
200 [label="major industry code <= 10.5\ngini = 0.311\nsamples = 1750\nvalue = [1413, 337]"] ;
108 -> 200 ;
201 [label="enroll in edu inst last wk <= 46.5\ngini = 0.422\nsamples = 324\nvalue = [226, 98]"] ;
200 -> 201 ;
279 [label="class of worker <= 0.4083\ngini = 0.374\nsamples = 245\nvalue = [184, 61]"] ;
201 -> 279 ;
387 [label="gini = 0.3564\nsamples = 237\nvalue = [182, 55]"] ;
279 -> 387 ;
388 [label="gini = 0.375\nsamples = 8\nvalue = [2, 6]"] ;
279 -> 388 ;
280 [label="gini = 0.498\nsamples = 79\nvalue = [42, 37]"] ;
201 -> 280 ;
202 [label="instance weight <= 0.1842\ngini = 0.279\nsamples = 1426\nvalue = [1187, 239]"] ;
200 -> 202 ;
283 [label="enroll in edu inst last wk <= 32.5\ngini = 0.268\nsamples = 1380\nvalue = [1160, 220]"] ;
202 -> 283 ;
325 [label="gini = 0.3075\nsamples = 901\nvalue = [730, 171]"] ;
283 -> 325 ;
326 [label="gini = 0.1837\nsamples = 479\nvalue = [430, 49]"] ;
283 -> 326 ;
284 [label="gini = 0.4849\nsamples = 46\nvalue = [27, 19]"] ;
202 -> 284 ;
4 [label="education <= 0.9135\ngini = 0.3411\nsamples = 18657\nvalue = [14587, 4070]"] ;
1 -> 4 ;
5 [label="detailed industry recode <= 0.1269\ngini = 0.1235\nsamples = 7575\nvalue = [7074, 501]"] ;
4 -> 5 ;
23 [label="class of worker <= 0.4111\ngini = 0.0997\nsamples = 7334\nvalue = [6948, 386]"] ;
5 -> 23 ;
73 [label="education <= 0.4904\ngini = 0.091\nsamples = 7216\nvalue = [6871, 345]"] ;
23 -> 73 ;
99 [label="detailed industry recode <= 0.0417\ngini = 0.0623\nsamples = 5812\nvalue = [5625, 187]"] ;
73 -> 99 ;
173 [label="gini = 0.0432\nsamples = 5070\nvalue = [4958, 112]"] ;
99 -> 173 ;
174 [label="full or part time employment stat <= 0.5\ngini = 0.1817\nsamples = 742\nvalue = [667, 75]"] ;
99 -> 174 ;
271 [label="gini = 0.1005\nsamples = 471\nvalue = [446, 25]"] ;
174 -> 271 ;
272 [label="gini = 0.3009\nsamples = 271\nvalue = [221, 50]"] ;
174 -> 272 ;
100 [label="marital stat <= 11.5\ngini = 0.1997\nsamples = 1404\nvalue = [1246, 158]"] ;
73 -> 100 ;
147 [label="Label <= 0.4944\ngini = 0.2908\nsamples = 657\nvalue = [541, 116]"] ;
100 -> 147 ;
153 [label="gini = 0.1662\nsamples = 328\nvalue = [298, 30]"] ;
147 -> 153 ;
154 [label="detailed household and family stat <= 36.5\ngini = 0.3861\nsamples = 329\nvalue = [243, 86]"] ;
147 -> 154 ;
293 [label="gini = 0.4531\nsamples = 173\nvalue = [113, 60]"] ;
154 -> 293 ;
294 [label="gini = 0.2778\nsamples = 156\nvalue = [130, 26]"] ;
154 -> 294 ;
148 [label="gini = 0.1061\nsamples = 747\nvalue = [705, 42]"] ;
100 -> 148 ;
74 [label="education <= 0.5192\ngini = 0.4535\nsamples = 118\nvalue = [77, 41]"] ;
23 -> 74 ;
101 [label="gini = 0.2989\nsamples = 82\nvalue = [67, 15]"] ;
74 -> 101 ;
102 [label="gini = 0.4012\nsamples = 36\nvalue = [10, 26]"] ;
74 -> 102 ;
24 [label="detailed industry recode <= 0.3063\ngini = 0.499\nsamples = 241\nvalue = [126, 115]"] ;
5 -> 24 ;
69 [label="gini = 0.4681\nsamples = 198\nvalue = [124, 74]"] ;
24 -> 69 ;
70 [label="gini = 0.0887\nsamples = 43\nvalue = [2, 41]"] ;
24 -> 70 ;
6 [label="full or part time employment stat <= 0.5\ngini = 0.4367\nsamples = 11082\nvalue = [7513, 3569]"] ;
4 -> 6 ;
11 [label="marital stat <= 18.5\ngini = 0.2684\nsamples = 4797\nvalue = [4031, 766]"] ;
6 -> 11 ;
25 [label="detailed industry recode <= 0.0099\ngini = 0.3571\nsamples = 2853\nvalue = [2189, 664]"] ;
11 -> 25 ;
37 [label="class of worker <= 0.4209\ngini = 0.2925\nsamples = 2114\nvalue = [1738, 376]"] ;
25 -> 37 ;
117 [label="major industry code <= 15.5\ngini = 0.2851\nsamples = 2091\nvalue = [1731, 360]"] ;
37 -> 117 ;
297 [label="major industry code <= 13.0\ngini = 0.3041\nsamples = 1775\nvalue = [1443, 332]"] ;
117 -> 297 ;
299 [label="major industry code <= 11.5\ngini = 0.2636\nsamples = 1383\nvalue = [1167, 216]"] ;
297 -> 299 ;
301 [label="major industry code <= 10.0\ngini = 0.3004\nsamples = 1092\nvalue = [891, 201]"] ;
299 -> 301 ;
303 [label="detailed occupation recode <= 0.75\ngini = 0.2847\nsamples = 1053\nvalue = [872, 181]"] ;
301 -> 303 ;
305 [label="gini = 0.1885\nsamples = 465\nvalue = [416, 49]"] ;
303 -> 305 ;
306 [label="marital stat <= 2.5\ngini = 0.3482\nsamples = 588\nvalue = [456, 132]"] ;
303 -> 306 ;
307 [label="major industry code <= 8.5\ngini = 0.48\nsamples = 110\nvalue = [66, 44]"] ;
306 -> 307 ;
329 [label="gini = 0.0\nsamples = 13\nvalue = [13, 0]"] ;
307 -> 329 ;
330 [label="Label <= 0.3833\ngini = 0.4957\nsamples = 97\nvalue = [53, 44]"] ;
307 -> 330 ;
331 [label="gini = 0.375\nsamples = 40\nvalue = [30, 10]"] ;
330 -> 331 ;
332 [label="gini = 0.4814\nsamples = 57\nvalue = [23, 34]"] ;
330 -> 332 ;
308 [label="gini = 0.3004\nsamples = 478\nvalue = [390, 88]"] ;
306 -> 308 ;
304 [label="gini = 0.4997\nsamples = 39\nvalue = [19, 20]"] ;
301 -> 304 ;
302 [label="gini = 0.0978\nsamples = 291\nvalue = [276, 15]"] ;
299 -> 302 ;
300 [label="race <= 0.5\ngini = 0.4167\nsamples = 392\nvalue = [276, 116]"] ;
297 -> 300 ;
309 [label="gini = 0.4888\nsamples = 40\nvalue = [17, 23]"] ;
300 -> 309 ;
310 [label="gini = 0.3888\nsamples = 352\nvalue = [259, 93]"] ;
300 -> 310 ;
298 [label="gini = 0.1615\nsamples = 316\nvalue = [288, 28]"] ;
117 -> 298 ;
118 [label="gini = 0.4234\nsamples = 23\nvalue = [7, 16]"] ;
37 -> 118 ;
38 [label="detailed industry recode <= 0.0958\ngini = 0.4757\nsamples = 739\nvalue = [451, 288]"] ;
25 -> 38 ;
53 [label="detailed occupation recode <= 0.4167\ngini = 0.4521\nsamples = 669\nvalue = [438, 231]"] ;
38 -> 53 ;
135 [label="gini = 0.3225\nsamples = 188\nvalue = [150, 38]"] ;
53 -> 135 ;
136 [label="major industry code <= 13.0\ngini = 0.4805\nsamples = 481\nvalue = [288, 193]"] ;
53 -> 136 ;
187 [label="class of worker <= 0.1697\ngini = 0.4422\nsamples = 294\nvalue = [197, 97]"] ;
136 -> 187 ;
255 [label="gini = 0.4267\nsamples = 282\nvalue = [195, 87]"] ;
187 -> 255 ;
256 [label="gini = 0.2778\nsamples = 12\nvalue = [2, 10]"] ;
187 -> 256 ;
188 [label="marital stat <= 11.5\ngini = 0.4996\nsamples = 187\nvalue = [91, 96]"] ;
136 -> 188 ;
189 [label="major industry code <= 15.5\ngini = 0.4844\nsamples = 153\nvalue = [63, 90]"] ;
188 -> 189 ;
191 [label="gini = 0.4301\nsamples = 115\nvalue = [36, 79]"] ;
189 -> 191 ;
192 [label="gini = 0.4114\nsamples = 38\nvalue = [27, 11]"] ;
189 -> 192 ;
190 [label="gini = 0.2907\nsamples = 34\nvalue = [28, 6]"] ;
188 -> 190 ;
54 [label="gini = 0.3024\nsamples = 70\nvalue = [13, 57]"] ;
38 -> 54 ;
26 [label="detailed industry recode <= 0.0095\ngini = 0.0994\nsamples = 1944\nvalue = [1842, 102]"] ;
11 -> 26 ;
151 [label="gini = 0.0537\nsamples = 1558\nvalue = [1515, 43]"] ;
26 -> 151 ;
152 [label="detailed industry recode <= 0.1625\ngini = 0.259\nsamples = 386\nvalue = [327, 59]"] ;
26 -> 152 ;
347 [label="gini = 0.2394\nsamples = 374\nvalue = [322, 52]"] ;
152 -> 347 ;
348 [label="gini = 0.4861\nsamples = 12\nvalue = [5, 7]"] ;
152 -> 348 ;
12 [label="marital stat <= 11.5\ngini = 0.4942\nsamples = 6285\nvalue = [3482, 2803]"] ;
6 -> 12 ;
15 [label="Label <= 0.3833\ngini = 0.475\nsamples = 2833\nvalue = [1100, 1733]"] ;
12 -> 15 ;
27 [label="detailed industry recode <= 0.0012\ngini = 0.4747\nsamples = 542\nvalue = [332, 210]"] ;
15 -> 27 ;
105 [label="Label <= 0.3389\ngini = 0.3964\nsamples = 268\nvalue = [195, 73]"] ;
27 -> 105 ;
323 [label="member of a labor union <= 3.0\ngini = 0.2895\nsamples = 131\nvalue = [108, 23]"] ;
105 -> 323 ;
365 [label="gini = 0.4082\nsamples = 7\nvalue = [2, 5]"] ;
323 -> 365 ;
366 [label="gini = 0.2482\nsamples = 124\nvalue = [106, 18]"] ;
323 -> 366 ;
324 [label="gini = 0.4635\nsamples = 137\nvalue = [87, 50]"] ;
105 -> 324 ;
106 [label="Label <= 0.3278\ngini = 0.5\nsamples = 274\nvalue = [137, 137]"] ;
27 -> 106 ;
127 [label="class of worker <= 0.4111\ngini = 0.4217\nsamples = 96\nvalue = [67, 29]"] ;
106 -> 127 ;
281 [label="gini = 0.375\nsamples = 88\nvalue = [66, 22]"] ;
127 -> 281 ;
282 [label="gini = 0.2188\nsamples = 8\nvalue = [1, 7]"] ;
127 -> 282 ;
128 [label="wage per hour <= 3.5\ngini = 0.4772\nsamples = 178\nvalue = [70, 108]"] ;
106 -> 128 ;
257 [label="gini = 0.4032\nsamples = 25\nvalue = [18, 7]"] ;
128 -> 257 ;
258 [label="detailed occupation recode <= 0.9167\ngini = 0.4487\nsamples = 153\nvalue = [52, 101]"] ;
128 -> 258 ;
321 [label="hispanic origin <= 6.5\ngini = 0.4991\nsamples = 69\nvalue = [33, 36]"] ;
258 -> 321 ;
363 [label="gini = 0.2604\nsamples = 13\nvalue = [11, 2]"] ;
321 -> 363 ;
364 [label="gini = 0.477\nsamples = 56\nvalue = [22, 34]"] ;
321 -> 364 ;
322 [label="gini = 0.3501\nsamples = 84\nvalue = [19, 65]"] ;
258 -> 322 ;
28 [label="class of worker <= 0.4111\ngini = 0.4457\nsamples = 2291\nvalue = [768, 1523]"] ;
15 -> 28 ;
49 [label="major industry code <= 15.5\ngini = 0.4633\nsamples = 2068\nvalue = [754, 1314]"] ;
28 -> 49 ;
57 [label="detailed industry recode <= 0.025\ngini = 0.4464\nsamples = 1826\nvalue = [614, 1212]"] ;
49 -> 57 ;
77 [label="detailed occupation recode <= 0.5833\ngini = 0.4646\nsamples = 1567\nvalue = [575, 992]"] ;
57 -> 77 ;
83 [label="major industry code <= 14.5\ngini = 0.4988\nsamples = 538\nvalue = [256, 282]"] ;
77 -> 83 ;
97 [label="Label <= 0.7056\ngini = 0.498\nsamples = 438\nvalue = [233, 205]"] ;
83 -> 97 ;
161 [label="race <= 3.5\ngini = 0.5\nsamples = 407\nvalue = [205, 202]"] ;
97 -> 161 ;
291 [label="enroll in edu inst last wk <= 44.5\ngini = 0.4992\nsamples = 375\nvalue = [180, 195]"] ;
161 -> 291 ;
341 [label="detailed occupation recode <= 0.25\ngini = 0.4992\nsamples = 298\nvalue = [155, 143]"] ;
291 -> 341 ;
343 [label="gini = 0.4574\nsamples = 113\nvalue = [73, 40]"] ;
341 -> 343 ;
344 [label="marital stat <= 9.5\ngini = 0.4936\nsamples = 185\nvalue = [82, 103]"] ;
341 -> 344 ;
351 [label="gini = 0.4848\nsamples = 172\nvalue = [71, 101]"] ;
344 -> 351 ;
352 [label="gini = 0.2604\nsamples = 13\nvalue = [11, 2]"] ;
344 -> 352 ;
342 [label="gini = 0.4385\nsamples = 77\nvalue = [25, 52]"] ;
291 -> 342 ;
292 [label="gini = 0.3418\nsamples = 32\nvalue = [25, 7]"] ;
161 -> 292 ;
162 [label="gini = 0.1748\nsamples = 31\nvalue = [28, 3]"] ;
97 -> 162 ;
98 [label="Label <= 0.7222\ngini = 0.3542\nsamples = 100\nvalue = [23, 77]"] ;
83 -> 98 ;
317 [label="gini = 0.3175\nsamples = 96\nvalue = [19, 77]"] ;
98 -> 317 ;
318 [label="gini = 0.0\nsamples = 4\nvalue = [4, 0]"] ;
98 -> 318 ;
84 [label="wage per hour <= 4.5\ngini = 0.4278\nsamples = 1029\nvalue = [319, 710]"] ;
77 -> 84 ;
203 [label="wage per hour <= 3.5\ngini = 0.409\nsamples = 893\nvalue = [256, 637]"] ;
84 -> 203 ;
205 [label="Label <= 0.4944\ngini = 0.4902\nsamples = 179\nvalue = [77, 102]"] ;
203 -> 205 ;
207 [label="year <= 30.0\ngini = 0.4713\nsamples = 71\nvalue = [44, 27]"] ;
205 -> 207 ;
389 [label="gini = 0.0\nsamples = 5\nvalue = [0, 5]"] ;
207 -> 389 ;
390 [label="gini = 0.4444\nsamples = 66\nvalue = [44, 22]"] ;
207 -> 390 ;
208 [label="wage per hour <= 0.5\ngini = 0.4244\nsamples = 108\nvalue = [33, 75]"] ;
205 -> 208 ;
273 [label="gini = 0.1975\nsamples = 45\nvalue = [5, 40]"] ;
208 -> 273 ;
274 [label="gini = 0.4938\nsamples = 63\nvalue = [28, 35]"] ;
208 -> 274 ;
206 [label="major industry code <= 13.0\ngini = 0.3757\nsamples = 714\nvalue = [179, 535]"] ;
203 -> 206 ;
395 [label="major industry code <= 11.5\ngini = 0.4089\nsamples = 492\nvalue = [141, 351]"] ;
206 -> 395 ;
397 [label="gini = 0.3744\nsamples = 437\nvalue = [109, 328]"] ;
395 -> 397 ;
398 [label="gini = 0.4866\nsamples = 55\nvalue = [32, 23]"] ;
395 -> 398 ;
396 [label="gini = 0.2837\nsamples = 222\nvalue = [38, 184]"] ;
206 -> 396 ;
204 [label="major industry code <= 10.0\ngini = 0.4973\nsamples = 136\nvalue = [63, 73]"] ;
84 -> 204 ;
261 [label="gini = 0.4488\nsamples = 50\nvalue = [33, 17]"] ;
204 -> 261 ;
262 [label="gini = 0.4543\nsamples = 86\nvalue = [30, 56]"] ;
204 -> 262 ;
78 [label="gini = 0.2558\nsamples = 259\nvalue = [39, 220]"] ;
57 -> 78 ;
58 [label="marital stat <= 1.5\ngini = 0.4877\nsamples = 242\nvalue = [140, 102]"] ;
49 -> 58 ;
267 [label="gini = 0.095\nsamples = 20\nvalue = [19, 1]"] ;
58 -> 267 ;
268 [label="Label <= 0.4611\ngini = 0.4959\nsamples = 222\nvalue = [121, 101]"] ;
58 -> 268 ;
345 [label="gini = 0.4038\nsamples = 57\nvalue = [41, 16]"] ;
268 -> 345 ;
346 [label="gini = 0.4995\nsamples = 165\nvalue = [80, 85]"] ;
268 -> 346 ;
50 [label="gini = 0.1177\nsamples = 223\nvalue = [14, 209]"] ;
28 -> 50 ;
16 [label="detailed industry recode <= 0.0093\ngini = 0.4278\nsamples = 3452\nvalue = [2382, 1070]"] ;
12 -> 16 ;
33 [label="marital stat <= 18.5\ngini = 0.3881\nsamples = 2702\nvalue = [1990, 712]"] ;
16 -> 33 ;
51 [label="class of worker <= 0.4111\ngini = 0.4658\nsamples = 940\nvalue = [593, 347]"] ;
33 -> 51 ;
91 [label="Label <= 0.3167\ngini = 0.4526\nsamples = 887\nvalue = [580, 307]"] ;
51 -> 91 ;
121 [label="gini = 0.1723\nsamples = 84\nvalue = [76, 8]"] ;
91 -> 121 ;
122 [label="hispanic origin <= 11.5\ngini = 0.4674\nsamples = 803\nvalue = [504, 299]"] ;
91 -> 122 ;
149 [label="marital stat <= 15.5\ngini = 0.4971\nsamples = 344\nvalue = [185, 159]"] ;
122 -> 149 ;
287 [label="gini = 0.4597\nsamples = 148\nvalue = [95, 53]"] ;
149 -> 287 ;
288 [label="wage per hour <= 5.5\ngini = 0.4967\nsamples = 196\nvalue = [90, 106]"] ;
149 -> 288 ;
339 [label="gini = 0.4815\nsamples = 156\nvalue = [63, 93]"] ;
288 -> 339 ;
340 [label="gini = 0.4387\nsamples = 40\nvalue = [27, 13]"] ;
288 -> 340 ;
150 [label="detailed industry recode <= 0.0012\ngini = 0.424\nsamples = 459\nvalue = [319, 140]"] ;
122 -> 150 ;
313 [label="enroll in edu inst last wk <= 46.0\ngini = 0.3543\nsamples = 226\nvalue = [174, 52]"] ;
150 -> 313 ;
357 [label="gini = 0.336\nsamples = 220\nvalue = [173, 47]"] ;
313 -> 357 ;
358 [label="gini = 0.2778\nsamples = 6\nvalue = [1, 5]"] ;
313 -> 358 ;
314 [label="detailed industry recode <= 0.0013\ngini = 0.4701\nsamples = 233\nvalue = [145, 88]"] ;
150 -> 314 ;
377 [label="gini = 0.355\nsamples = 13\nvalue = [3, 10]"] ;
314 -> 377 ;
378 [label="marital stat <= 14.5\ngini = 0.4577\nsamples = 220\nvalue = [142, 78]"] ;
314 -> 378 ;
379 [label="gini = 0.3367\nsamples = 84\nvalue = [66, 18]"] ;
378 -> 379 ;
380 [label="citizenship <= 0.5\ngini = 0.4931\nsamples = 136\nvalue = [76, 60]"] ;
378 -> 380 ;
381 [label="gini = 0.5\nsamples = 119\nvalue = [60, 59]"] ;
380 -> 381 ;
382 [label="gini = 0.1107\nsamples = 17\nvalue = [16, 1]"] ;
380 -> 382 ;
92 [label="gini = 0.3702\nsamples = 53\nvalue = [13, 40]"] ;
51 -> 92 ;
52 [label="detailed occupation recode <= 0.9167\ngini = 0.3285\nsamples = 1762\nvalue = [1397, 365]"] ;
33 -> 52 ;
55 [label="Label <= 0.3944\ngini = 0.2129\nsamples = 867\nvalue = [762, 105]"] ;
52 -> 55 ;
243 [label="gini = 0.0522\nsamples = 261\nvalue = [254, 7]"] ;
55 -> 243 ;
244 [label="instance weight <= 0.249\ngini = 0.2711\nsamples = 606\nvalue = [508, 98]"] ;
55 -> 244 ;
373 [label="enroll in edu inst last wk <= 45.5\ngini = 0.2654\nsamples = 603\nvalue = [508, 95]"] ;
244 -> 373 ;
391 [label="gini = 0.2449\nsamples = 567\nvalue = [486, 81]"] ;
373 -> 391 ;
392 [label="gini = 0.4753\nsamples = 36\nvalue = [22, 14]"] ;
373 -> 392 ;
374 [label="gini = 0.0\nsamples = 3\nvalue = [0, 3]"] ;
244 -> 374 ;
56 [label="instance weight <= 0.1988\ngini = 0.4122\nsamples = 895\nvalue = [635, 260]"] ;
52 -> 56 ;
165 [label="class of worker <= 0.4287\ngini = 0.4032\nsamples = 875\nvalue = [630, 245]"] ;
56 -> 165 ;
185 [label="Label <= 0.3722\ngini = 0.3968\nsamples = 865\nvalue = [629, 236]"] ;
165 -> 185 ;
211 [label="gini = 0.2461\nsamples = 174\nvalue = [149, 25]"] ;
185 -> 211 ;
212 [label="gini = 0.4242\nsamples = 691\nvalue = [480, 211]"] ;
185 -> 212 ;
186 [label="gini = 0.18\nsamples = 10\nvalue = [1, 9]"] ;
165 -> 186 ;
166 [label="gini = 0.375\nsamples = 20\nvalue = [5, 15]"] ;
56 -> 166 ;
34 [label="class of worker <= 0.3139\ngini = 0.499\nsamples = 750\nvalue = [392, 358]"] ;
16 -> 34 ;
95 [label="detailed industry recode <= 0.1198\ngini = 0.4944\nsamples = 687\nvalue = [380, 307]"] ;
34 -> 95 ;
119 [label="marital stat <= 24.5\ngini = 0.4886\nsamples = 650\nvalue = [374, 276]"] ;
95 -> 119 ;
129 [label="gini = 0.4992\nsamples = 319\nvalue = [153, 166]"] ;
119 -> 129 ;
130 [label="detailed occupation recode <= 0.9167\ngini = 0.4438\nsamples = 331\nvalue = [221, 110]"] ;
119 -> 130 ;
175 [label="gini = 0.3546\nsamples = 178\nvalue = [137, 41]"] ;
130 -> 175 ;
176 [label="gini = 0.4952\nsamples = 153\nvalue = [84, 69]"] ;
130 -> 176 ;
120 [label="gini = 0.2717\nsamples = 37\nvalue = [6, 31]"] ;
95 -> 120 ;
96 [label="gini = 0.3084\nsamples = 63\nvalue = [12, 51]"] ;
34 -> 96 ;
2 [label="age <= 0.1004\ngini = 0.3995\nsamples = 2541\nvalue = [701, 1840]"] ;
0 -> 2 [labeldistance=2.5, labelangle=-45, headlabel="False"] ;
19 [label="tax filer stat <= 2.5\ngini = 0.4968\nsamples = 830\nvalue = [448, 382]"] ;
2 -> 19 ;
31 [label="full or part time employment stat <= 0.5\ngini = 0.4931\nsamples = 657\nvalue = [290, 367]"] ;
19 -> 31 ;
41 [label="age <= 0.0744\ngini = 0.3122\nsamples = 124\nvalue = [100, 24]"] ;
31 -> 41 ;
113 [label="gini = 0.0\nsamples = 9\nvalue = [0, 9]"] ;
41 -> 113 ;
114 [label="gini = 0.2268\nsamples = 115\nvalue = [100, 15]"] ;
41 -> 114 ;
42 [label="education <= 0.9519\ngini = 0.4588\nsamples = 533\nvalue = [190, 343]"] ;
31 -> 42 ;
179 [label="gini = 0.4786\nsamples = 58\nvalue = [35, 23]"] ;
42 -> 179 ;
180 [label="marital stat <= 7.5\ngini = 0.4397\nsamples = 475\nvalue = [155, 320]"] ;
42 -> 180 ;
197 [label="dividends from stocks <= 3.5\ngini = 0.3535\nsamples = 218\nvalue = [50, 168]"] ;
180 -> 197 ;
355 [label="gini = 0.3344\nsamples = 212\nvalue = [45, 167]"] ;
197 -> 355 ;
356 [label="gini = 0.2778\nsamples = 6\nvalue = [5, 1]"] ;
197 -> 356 ;
198 [label="gini = 0.4833\nsamples = 257\nvalue = [105, 152]"] ;
180 -> 198 ;
32 [label="gini = 0.1584\nsamples = 173\nvalue = [158, 15]"] ;
19 -> 32 ;
20 [label="education <= 0.6058\ngini = 0.252\nsamples = 1711\nvalue = [253, 1458]"] ;
2 -> 20 ;
47 [label="Label <= 0.6833\ngini = 0.4912\nsamples = 203\nvalue = [88, 115]"] ;
20 -> 47 ;
81 [label="full or part time employment stat <= 0.5\ngini = 0.421\nsamples = 83\nvalue = [58, 25]"] ;
47 -> 81 ;
213 [label="gini = 0.2368\nsamples = 51\nvalue = [44, 7]"] ;
81 -> 213 ;
214 [label="detailed occupation recode <= 0.5833\ngini = 0.4922\nsamples = 32\nvalue = [14, 18]"] ;
81 -> 214 ;
393 [label="gini = 0.4132\nsamples = 24\nvalue = [7, 17]"] ;
214 -> 393 ;
394 [label="gini = 0.2188\nsamples = 8\nvalue = [7, 1]"] ;
214 -> 394 ;
82 [label="race <= 2.5\ngini = 0.375\nsamples = 120\nvalue = [30, 90]"] ;
47 -> 82 ;
277 [label="gini = 0.4597\nsamples = 81\nvalue = [29, 52]"] ;
82 -> 277 ;
278 [label="gini = 0.05\nsamples = 39\nvalue = [1, 38]"] ;
82 -> 278 ;
48 [label="full or part time employment stat <= 0.5\ngini = 0.1949\nsamples = 1508\nvalue = [165, 1343]"] ;
20 -> 48 ;
87 [label="age <= 0.1421\ngini = 0.3922\nsamples = 295\nvalue = [79, 216]"] ;
48 -> 87 ;
137 [label="gini = 0.1095\nsamples = 86\nvalue = [5, 81]"] ;
87 -> 137 ;
138 [label="age <= 0.1468\ngini = 0.4574\nsamples = 209\nvalue = [74, 135]"] ;
87 -> 138 ;
139 [label="gini = 0.0\nsamples = 15\nvalue = [15, 0]"] ;
138 -> 139 ;
140 [label="tax filer stat <= 4.0\ngini = 0.4233\nsamples = 194\nvalue = [59, 135]"] ;
138 -> 140 ;
141 [label="tax filer stat <= 0.5\ngini = 0.4784\nsamples = 149\nvalue = [59, 90]"] ;
140 -> 141 ;
251 [label="gini = 0.0\nsamples = 18\nvalue = [0, 18]"] ;
141 -> 251 ;
252 [label="marital stat <= 17.5\ngini = 0.4951\nsamples = 131\nvalue = [59, 72]"] ;
141 -> 252 ;
253 [label="gini = 0.4682\nsamples = 107\nvalue = [40, 67]"] ;
252 -> 253 ;
254 [label="gini = 0.3299\nsamples = 24\nvalue = [19, 5]"] ;
252 -> 254 ;
142 [label="gini = 0.0\nsamples = 45\nvalue = [0, 45]"] ;
140 -> 142 ;
88 [label="instance weight <= 0.0243\ngini = 0.1317\nsamples = 1213\nvalue = [86, 1127]"] ;
48 -> 88 ;
263 [label="gini = 0.1175\nsamples = 1181\nvalue = [74, 1107]"] ;
88 -> 263 ;
264 [label="gini = 0.4688\nsamples = 32\nvalue = [12, 20]"] ;
88 -> 264 ;
}